digraph Tree {
node [shape=box, style="rounded", color="black", fontname="helvetica"] ;
edge [fontname="helvetica"] ;
0 [label="Frames <= 169.3\nsquared_error = 0.2\nsamples = 4461\nvalue = 0.2"] ;
1 [label="Frames <= 130.4\nsquared_error = 0.1\nsamples = 1204\nvalue = 0.1"] ;
0 -> 1 [labeldistance=2.5, labelangle=45, headlabel="True"] ;
2 [label="Frames <= 102.7\nsquared_error = 0.2\nsamples = 53\nvalue = 0.7"] ;
1 -> 2 ;
3 [label="squared_error = 0.1\nsamples = 11\nvalue = 0.2"] ;
2 -> 3 ;
4 [label="Frames <= 127.2\nsquared_error = 0.1\nsamples = 42\nvalue = 0.9"] ;
2 -> 4 ;
5 [label="Frames <= 111.0\nsquared_error = 0.0\nsamples = 29\nvalue = 1.0"] ;
4 -> 5 ;
6 [label="squared_error = 0.1\nsamples = 6\nvalue = 0.9"] ;
5 -> 6 ;
7 [label="squared_error = 0.0\nsamples = 23\nvalue = 1.0"] ;
5 -> 7 ;
8 [label="squared_error = 0.2\nsamples = 13\nvalue = 0.8"] ;
4 -> 8 ;
9 [label="Angles <= 12.1\nsquared_error = 0.1\nsamples = 1151\nvalue = 0.1"] ;
1 -> 9 ;
10 [label="Frames <= 153.7\nsquared_error = 0.2\nsamples = 36\nvalue = 0.4"] ;
9 -> 10 ;
11 [label="squared_error = 0.1\nsamples = 14\nvalue = 0.9"] ;
10 -> 11 ;
12 [label="squared_error = 0.2\nsamples = 22\nvalue = 0.2"] ;
10 -> 12 ;
13 [label="Angles <= 30.4\nsquared_error = 0.1\nsamples = 1115\nvalue = 0.1"] ;
9 -> 13 ;
14 [label="Frames <= 163.9\nsquared_error = 0.0\nsamples = 1100\nvalue = 0.0"] ;
13 -> 14 ;
15 [label="Frames <= 134.3\nsquared_error = 0.0\nsamples = 936\nvalue = 0.0"] ;
14 -> 15 ;
16 [label="squared_error = 0.1\nsamples = 47\nvalue = 0.2"] ;
15 -> 16 ;
17 [label="squared_error = 0.0\nsamples = 889\nvalue = 0.0"] ;
15 -> 17 ;
18 [label="Frames <= 163.9\nsquared_error = 0.1\nsamples = 164\nvalue = 0.1"] ;
14 -> 18 ;
19 [label="squared_error = 0.0\nsamples = 2\nvalue = 1.0"] ;
18 -> 19 ;
20 [label="squared_error = 0.1\nsamples = 162\nvalue = 0.1"] ;
18 -> 20 ;
21 [label="squared_error = 0.2\nsamples = 15\nvalue = 0.5"] ;
13 -> 21 ;
22 [label="Frames <= 243.3\nsquared_error = 0.2\nsamples = 3257\nvalue = 0.3"] ;
0 -> 22 [labeldistance=2.5, labelangle=-45, headlabel="False"] ;
23 [label="Angles <= 26.6\nsquared_error = 0.2\nsamples = 1404\nvalue = 0.4"] ;
22 -> 23 ;
24 [label="Angles <= 16.2\nsquared_error = 0.2\nsamples = 897\nvalue = 0.4"] ;
23 -> 24 ;
25 [label="Angles <= 7.1\nsquared_error = 0.2\nsamples = 585\nvalue = 0.3"] ;
24 -> 25 ;
26 [label="Angles <= 5.6\nsquared_error = 0.2\nsamples = 65\nvalue = 0.6"] ;
25 -> 26 ;
27 [label="squared_error = 0.1\nsamples = 21\nvalue = 0.8"] ;
26 -> 27 ;
28 [label="squared_error = 0.2\nsamples = 44\nvalue = 0.5"] ;
26 -> 28 ;
29 [label="Frames <= 201.1\nsquared_error = 0.2\nsamples = 520\nvalue = 0.3"] ;
25 -> 29 ;
30 [label="squared_error = 0.2\nsamples = 278\nvalue = 0.4"] ;
29 -> 30 ;
31 [label="squared_error = 0.1\nsamples = 242\nvalue = 0.2"] ;
29 -> 31 ;
32 [label="Frames <= 179.3\nsquared_error = 0.2\nsamples = 312\nvalue = 0.6"] ;
24 -> 32 ;
33 [label="Angles <= 16.7\nsquared_error = 0.2\nsamples = 100\nvalue = 0.3"] ;
32 -> 33 ;
34 [label="squared_error = 0.2\nsamples = 7\nvalue = 0.7"] ;
33 -> 34 ;
35 [label="squared_error = 0.2\nsamples = 93\nvalue = 0.2"] ;
33 -> 35 ;
36 [label="Angles <= 18.9\nsquared_error = 0.2\nsamples = 212\nvalue = 0.8"] ;
32 -> 36 ;
37 [label="squared_error = 0.2\nsamples = 64\nvalue = 0.6"] ;
36 -> 37 ;
38 [label="squared_error = 0.1\nsamples = 148\nvalue = 0.8"] ;
36 -> 38 ;
39 [label="Angles <= 35.4\nsquared_error = 0.2\nsamples = 507\nvalue = 0.3"] ;
23 -> 39 ;
40 [label="Frames <= 217.7\nsquared_error = 0.2\nsamples = 492\nvalue = 0.3"] ;
39 -> 40 ;
41 [label="Angles <= 32.6\nsquared_error = 0.2\nsamples = 315\nvalue = 0.2"] ;
40 -> 41 ;
42 [label="squared_error = 0.2\nsamples = 295\nvalue = 0.2"] ;
41 -> 42 ;
43 [label="squared_error = 0.2\nsamples = 20\nvalue = 0.6"] ;
41 -> 43 ;
44 [label="Angles <= 30.1\nsquared_error = 0.2\nsamples = 177\nvalue = 0.4"] ;
40 -> 44 ;
45 [label="squared_error = 0.2\nsamples = 46\nvalue = 0.6"] ;
44 -> 45 ;
46 [label="squared_error = 0.2\nsamples = 131\nvalue = 0.3"] ;
44 -> 46 ;
47 [label="squared_error = 0.2\nsamples = 15\nvalue = 0.8"] ;
39 -> 47 ;
48 [label="Angles <= 39.6\nsquared_error = 0.2\nsamples = 1853\nvalue = 0.2"] ;
22 -> 48 ;
49 [label="Angles <= 2.3\nsquared_error = 0.2\nsamples = 1821\nvalue = 0.2"] ;
48 -> 49 ;
50 [label="Frames <= 279.6\nsquared_error = 0.2\nsamples = 277\nvalue = 0.3"] ;
49 -> 50 ;
51 [label="squared_error = 0.1\nsamples = 14\nvalue = 0.9"] ;
50 -> 51 ;
52 [label="Frames <= 309.8\nsquared_error = 0.2\nsamples = 263\nvalue = 0.3"] ;
50 -> 52 ;
53 [label="squared_error = 0.2\nsamples = 40\nvalue = 0.5"] ;
52 -> 53 ;
54 [label="squared_error = 0.2\nsamples = 223\nvalue = 0.3"] ;
52 -> 54 ;
55 [label="Frames <= 299.0\nsquared_error = 0.2\nsamples = 1544\nvalue = 0.2"] ;
49 -> 55 ;
56 [label="Angles <= 36.3\nsquared_error = 0.2\nsamples = 709\nvalue = 0.2"] ;
55 -> 56 ;
57 [label="squared_error = 0.2\nsamples = 674\nvalue = 0.2"] ;
56 -> 57 ;
58 [label="squared_error = 0.2\nsamples = 35\nvalue = 0.6"] ;
56 -> 58 ;
59 [label="Frames <= 354.3\nsquared_error = 0.1\nsamples = 835\nvalue = 0.1"] ;
55 -> 59 ;
60 [label="squared_error = 0.1\nsamples = 832\nvalue = 0.1"] ;
59 -> 60 ;
61 [label="squared_error = 0.0\nsamples = 3\nvalue = 1.0"] ;
59 -> 61 ;
62 [label="squared_error = 0.0\nsamples = 32\nvalue = 1.0"] ;
48 -> 62 ;
}